digraph Tree {
node [shape=box, style="filled, rounded", color="black", fontname=helvetica] ;
edge [fontname=helvetica] ;
0 [label="income <= 51291.801\nentropy = 0.992\nsamples = 480\nvalue = [265, 215]\nclass = YES", fillcolor="#fae7da"] ;
1 [label="children <= 1.5\nentropy = 0.981\nsamples = 454\nvalue = [264, 190]\nclass = YES", fillcolor="#f8dcc8"] ;
0 -> 1 [labeldistance=2.5, labelangle=45, headlabel="True"] ;
2 [label="children <= 0.5\nentropy = 1.0\nsamples = 304\nvalue = [153, 151]\nclass = YES", fillcolor="#fffdfc"] ;
1 -> 2 ;
3 [label="married_YES <= 0.5\nentropy = 0.937\nsamples = 204\nvalue = [132, 72]\nclass = YES", fillcolor="#f3c6a5"] ;
2 -> 3 ;
4 [label="mortgage_YES <= 0.5\nentropy = 0.866\nsamples = 59\nvalue = [17, 42]\nclass = NO", fillcolor="#89c5f0"] ;
3 -> 4 ;
5 [label="entropy = 0.31\nsamples = 36\nvalue = [2, 34]\nclass = NO", fillcolor="#45a3e7"] ;
4 -> 5 ;
6 [label="entropy = 0.932\nsamples = 23\nvalue = [15, 8]\nclass = YES", fillcolor="#f3c4a3"] ;
4 -> 6 ;
7 [label="mortgage_NO <= 0.5\nentropy = 0.736\nsamples = 145\nvalue = [115, 30]\nclass = YES", fillcolor="#eca26d"] ;
3 -> 7 ;
8 [label="entropy = 0.984\nsamples = 47\nvalue = [27, 20]\nclass = YES", fillcolor="#f8decc"] ;
7 -> 8 ;
9 [label="entropy = 0.475\nsamples = 98\nvalue = [88, 10]\nclass = YES", fillcolor="#e88f50"] ;
7 -> 9 ;
10 [label="income <= 15155.85\nentropy = 0.741\nsamples = 100\nvalue = [21, 79]\nclass = NO", fillcolor="#6eb7ec"] ;
2 -> 10 ;
11 [label="income <= 12694.1\nentropy = 0.592\nsamples = 21\nvalue = [18, 3]\nclass = YES", fillcolor="#e9965a"] ;
10 -> 11 ;
12 [label="entropy = 0.0\nsamples = 13\nvalue = [13, 0]\nclass = YES", fillcolor="#e58139"] ;
11 -> 12 ;
13 [label="entropy = 0.954\nsamples = 8\nvalue = [5, 3]\nclass = YES", fillcolor="#f5cdb0"] ;
11 -> 13 ;
14 [label="age <= 54.5\nentropy = 0.233\nsamples = 79\nvalue = [3, 76]\nclass = NO", fillcolor="#41a1e6"] ;
10 -> 14 ;
15 [label="entropy = 0.0\nsamples = 59\nvalue = [0, 59]\nclass = NO", fillcolor="#399de5"] ;
14 -> 15 ;
16 [label="entropy = 0.61\nsamples = 20\nvalue = [3, 17]\nclass = NO", fillcolor="#5caeea"] ;
14 -> 16 ;
17 [label="income <= 30360.4\nentropy = 0.827\nsamples = 150\nvalue = [111, 39]\nclass = YES", fillcolor="#eead7f"] ;
1 -> 17 ;
18 [label="income <= 13422.8\nentropy = 0.425\nsamples = 104\nvalue = [95, 9]\nclass = YES", fillcolor="#e78d4c"] ;
17 -> 18 ;
19 [label="age <= 28.0\nentropy = 0.828\nsamples = 23\nvalue = [17, 6]\nclass = YES", fillcolor="#eead7f"] ;
18 -> 19 ;
20 [label="entropy = 0.523\nsamples = 17\nvalue = [15, 2]\nclass = YES", fillcolor="#e89253"] ;
19 -> 20 ;
21 [label="entropy = 0.918\nsamples = 6\nvalue = [2, 4]\nclass = NO", fillcolor="#9ccef2"] ;
19 -> 21 ;
22 [label="car_YES <= 0.5\nentropy = 0.229\nsamples = 81\nvalue = [78, 3]\nclass = YES", fillcolor="#e68641"] ;
18 -> 22 ;
23 [label="entropy = 0.378\nsamples = 41\nvalue = [38, 3]\nclass = YES", fillcolor="#e78b49"] ;
22 -> 23 ;
24 [label="entropy = 0.0\nsamples = 40\nvalue = [40, 0]\nclass = YES", fillcolor="#e58139"] ;
22 -> 24 ;
25 [label="children <= 2.5\nentropy = 0.932\nsamples = 46\nvalue = [16, 30]\nclass = NO", fillcolor="#a3d1f3"] ;
17 -> 25 ;
26 [label="car_NO <= 0.5\nentropy = 0.605\nsamples = 27\nvalue = [4, 23]\nclass = NO", fillcolor="#5baeea"] ;
25 -> 26 ;
27 [label="entropy = 0.89\nsamples = 13\nvalue = [4, 9]\nclass = NO", fillcolor="#91c9f1"] ;
26 -> 27 ;
28 [label="entropy = 0.0\nsamples = 14\nvalue = [0, 14]\nclass = NO", fillcolor="#399de5"] ;
26 -> 28 ;
29 [label="income <= 44387.549\nentropy = 0.949\nsamples = 19\nvalue = [12, 7]\nclass = YES", fillcolor="#f4caac"] ;
25 -> 29 ;
30 [label="entropy = 0.592\nsamples = 14\nvalue = [12, 2]\nclass = YES", fillcolor="#e9965a"] ;
29 -> 30 ;
31 [label="entropy = 0.0\nsamples = 5\nvalue = [0, 5]\nclass = NO", fillcolor="#399de5"] ;
29 -> 31 ;
32 [label="children <= 0.5\nentropy = 0.235\nsamples = 26\nvalue = [1, 25]\nclass = NO", fillcolor="#41a1e6"] ;
0 -> 32 [labeldistance=2.5, labelangle=-45, headlabel="False"] ;
33 [label="entropy = 0.918\nsamples = 3\nvalue = [1, 2]\nclass = NO", fillcolor="#9ccef2"] ;
32 -> 33 ;
34 [label="entropy = 0.0\nsamples = 23\nvalue = [0, 23]\nclass = NO", fillcolor="#399de5"] ;
32 -> 34 ;
}